{"learner":{"attributes":{"best_iteration":"29","best_score":"19.29037074383884","scikit_learn":"{\"_estimator_type\": \"regressor\"}"},"feature_names":["k","m","Hardness"],"feature_types":["float","float","float"],"gradient_booster":{"model":{"gbtree_model_param":{"num_parallel_tree":"1","num_trees":"35"},"iteration_indptr":[0,1,2,3,4,5,6,7,8,9,10,11,12,13,14,15,16,17,18,19,20,21,22,23,24,25,26,27,28,29,30,31,32,33,34,35],"tree_info":[0,0,0,0,0,0,0,0,0,0,0,0,0,0,0,0,0,0,0,0,0,0,0,0,0,0,0,0,0,0,0,0,0,0,0],"trees":[{"base_weights":[-0E0,-1.4379982E2,1.3589874E2,-2.0872786E2,-7.162044E1,8.177038E1,2.68065E2,-2.4273672E1,-1.6763533E1,-4.8795433E0,-1.2351469E1,2.9626327E0,1.2121373E1,1.9428473E1,3.1114933E1],"categories":[],"categories_nodes":[],"categories_segments":[],"categories_sizes":[],"default_left":[0,0,0,0,0,0,0,0,0,0,0,0,0,0,0],"id":0,"left_children":[1,3,5,7,9,11,13,-1,-1,-1,-1,-1,-1,-1,-1],"loss_changes":[2.7671775E6,3.104135E5,5.032015E5,1.739575E4,3.517961E4,1.05692625E5,1.7655875E4,0E0,0E0,0E0,0E0,0E0,0E0,0E0,0E0],"parents":[2147483647,0,0,1,1,2,2,3,3,4,4,5,5,6,6],"right_children":[2,4,6,8,10,12,14,-1,-1,-1,-1,-1,-1,-1,-1],"split_conditions":[1.1228451E2,7.856843E1,1.5829633E2,5.4576546E1,2.2651744E0,1.303142E2,1.7485691E3,-2.4273672E1,-1.6763533E1,-4.8795433E0,-1.2351469E1,2.9626327E0,1.2121373E1,1.9428473E1,3.1114933E1],"split_indices":[2,2,2,2,1,2,0,0,0,0,0,0,0,0,0],"split_type":[0,0,0,0,0,0,0,0,0,0,0,0,0,0,0],"sum_hessian":[1.4E2,6.8E1,7.2E1,3.5E1,3.3E1,5.2E1,2E1,1.7E1,1.8E1,2.4E1,9E0,2.3E1,2.9E1,9E0,1.1E1],"tree_param":{"num_deleted":"0","num_feature":"3","num_nodes":"15","size_leaf_vector":"1"}},{"base_weights":[4.0392637E-2,-1.3009825E2,1.2303087E2,-1.943965E2,-6.995529E1,7.382226E1,2.4320345E2,-1.5010117E1,-2.2098446E1,-4.6297584E0,-1.169218E1,2.6763265E0,1.0941777E1,2.014299E1,3.2342056E1],"categories":[],"categories_nodes":[],"categories_segments":[],"categories_sizes":[],"default_left":[0,0,0,0,0,0,0,0,0,0,0,0,0,0,0],"id":1,"left_children":[1,3,5,7,9,11,13,-1,-1,-1,-1,-1,-1,-1,-1],"loss_changes":[2.266422E6,2.551235E5,4.1607825E5,1.2019E4,3.6526E4,8.607478E4,1.74775E4,0E0,0E0,0E0,0E0,0E0,0E0,0E0,0E0],"parents":[2147483647,0,0,1,1,2,2,3,3,4,4,5,5,6,6],"right_children":[2,4,6,8,10,12,14,-1,-1,-1,-1,-1,-1,-1,-1],"split_conditions":[1.1228451E2,7.565314E1,1.5829633E2,2.2751033E0,2.2651744E0,1.303142E2,1.8991394E2,-1.5010117E1,-2.2098446E1,-4.6297584E0,-1.169218E1,2.6763265E0,1.0941777E1,2.014299E1,3.2342056E1],"split_indices":[2,2,2,1,1,2,2,0,0,0,0,0,0,0,0],"split_type":[0,0,0,0,0,0,0,0,0,0,0,0,0,0,0],"sum_hessian":[1.4E2,6.8E1,7.2E1,3.2E1,3.6E1,5.2E1,2E1,1.4E1,1.8E1,2.5E1,1.1E1,2.3E1,2.9E1,1.5E1,5E0],"tree_param":{"num_deleted":"0","num_feature":"3","num_nodes":"15","size_leaf_vector":"1"}},{"base_weights":[1.08213946E-1,-1.1771059E2,1.1145501E2,-1.7100932E2,-5.846611E1,6.359944E1,2.141611E2,-1.3787249E1,-2.0190825E1,-3.9592876E0,-1.014338E1,2.4176893E0,9.551229E0,1.5558845E1,2.5819742E1],"categories":[],"categories_nodes":[],"categories_segments":[],"categories_sizes":[],"default_left":[0,0,0,0,0,0,0,0,0,0,0,0,0,0,0],"id":2,"left_children":[1,3,5,7,9,11,13,-1,-1,-1,-1,-1,-1,-1,-1],"loss_changes":[1.8576136E6,2.0920225E5,3.468643E5,1.43173125E4,2.4168695E4,6.2039453E4,2.658775E4,0E0,0E0,0E0,0E0,0E0,0E0,0E0,0E0],"parents":[2147483647,0,0,1,1,2,2,3,3,4,4,5,5,6,6],"right_children":[2,4,6,8,10,12,14,-1,-1,-1,-1,-1,-1,-1,-1],"split_conditions":[1.1228451E2,7.856843E1,1.5556868E2,2.2821188E0,2.2651744E0,1.303142E2,1.7485691E3,-1.3787249E1,-2.0190825E1,-3.9592876E0,-1.014338E1,2.4176893E0,9.551229E0,1.5558845E1,2.5819742E1],"split_indices":[2,2,2,1,1,2,0,0,0,0,0,0,0,0,0],"split_type":[0,0,0,0,0,0,0,0,0,0,0,0,0,0,0],"sum_hessian":[1.4E2,6.8E1,7.2E1,3.5E1,3.3E1,5E1,2.2E1,1.9E1,1.6E1,2.4E1,9E0,2.3E1,2.7E1,1.1E1,1.1E1],"tree_param":{"num_deleted":"0","num_feature":"3","num_nodes":"15","size_leaf_vector":"1"}},{"base_weights":[1.2717558E-1,-1.163075E2,9.292154E1,-1.5928786E2,-6.7508736E1,5.0956135E1,1.9419775E2,-1.2286041E1,-1.8117596E1,-4.8449235E0,-9.919677E0,1.6669476E0,8.62359E0,1.5968981E1,2.732811E1],"categories":[],"categories_nodes":[],"categories_segments":[],"categories_sizes":[],"default_left":[0,0,0,0,0,0,0,0,0,0,0,0,0,0,0],"id":3,"left_children":[1,3,5,7,9,11,13,-1,-1,-1,-1,-1,-1,-1,-1],"loss_changes":[1.5299122E6,1.23068E5,3.269423E5,8.2840625E3,1.4727578E4,6.7536125E4,2.72225E4,0E0,0E0,0E0,0E0,0E0,0E0,0E0,0E0],"parents":[2147483647,0,0,1,1,2,2,3,3,4,4,5,5,6,6],"right_children":[2,4,6,8,10,12,14,-1,-1,-1,-1,-1,-1,-1,-1],"split_conditions":[1.0638826E2,7.565314E1,1.5556868E2,2.2751033E0,2.2651744E0,1.303142E2,1.8991394E2,-1.2286041E1,-1.8117596E1,-4.8449235E0,-9.919677E0,1.6669476E0,8.62359E0,1.5968981E1,2.732811E1],"split_indices":[2,2,2,1,1,2,2,0,0,0,0,0,0,0,0],"split_type":[0,0,0,0,0,0,0,0,0,0,0,0,0,0,0],"sum_hessian":[1.4E2,6.2E1,7.8E1,3.2E1,3E1,5.6E1,2.2E1,1.4E1,1.8E1,2E1,1E1,2.9E1,2.7E1,1.7E1,5E0],"tree_param":{"num_deleted":"0","num_feature":"3","num_nodes":"15","size_leaf_vector":"1"}},{"base_weights":[1.6214699E-1,-1.052531E2,8.417417E1,-1.4410124E2,-6.1142017E1,4.8268204E1,1.8243051E2,-1.6656414E1,-1.11486025E1,-4.3790665E0,-9.001187E0,1.5047264E0,8.018664E0,1.48478775E1,2.4972242E1],"categories":[],"categories_nodes":[],"categories_segments":[],"categories_sizes":[],"default_left":[0,0,0,0,0,0,0,0,0,0,0,0,0,0,0],"id":4,"left_children":[1,3,5,7,9,11,13,-1,-1,-1,-1,-1,-1,-1,-1],"loss_changes":[1.2540291E6,1.0052656E5,2.7091494E5,9.119125E3,1.2248578E4,6.136489E4,1.7778875E4,0E0,0E0,0E0,0E0,0E0,0E0,0E0,0E0],"parents":[2147483647,0,0,1,1,2,2,3,3,4,4,5,5,6,6],"right_children":[2,4,6,8,10,12,14,-1,-1,-1,-1,-1,-1,-1,-1],"split_conditions":[1.0638826E2,7.565314E1,1.5829633E2,5.4576546E1,2.2651744E0,1.303142E2,1.8991394E2,-1.6656414E1,-1.11486025E1,-4.3790665E0,-9.001187E0,1.5047264E0,8.018664E0,1.48478775E1,2.4972242E1],"split_indices":[2,2,2,2,1,2,2,0,0,0,0,0,0,0,0],"split_type":[0,0,0,0,0,0,0,0,0,0,0,0,0,0,0],"sum_hessian":[1.4E2,6.2E1,7.8E1,3.2E1,3E1,5.8E1,2E1,1.7E1,1.5E1,2E1,1E1,2.9E1,2.9E1,1.5E1,5E0],"tree_param":{"num_deleted":"0","num_feature":"3","num_nodes":"15","size_leaf_vector":"1"}},{"base_weights":[1.9214205E-1,-8.755808E1,8.312157E1,-1.1960709E2,-3.3754208E1,5.352965E1,1.7920033E2,-9.411766E0,-1.5116561E1,-1.103563E0,-5.1564646E0,2.7789772E0,8.827689E0,1.4295227E1,2.2819464E1],"categories":[],"categories_nodes":[],"categories_segments":[],"categories_sizes":[],"default_left":[0,0,0,0,0,0,0,0,0,0,0,0,0,0,0],"id":5,"left_children":[1,3,5,7,9,11,13,-1,-1,-1,-1,-1,-1,-1,-1],"loss_changes":[1.0304337E6,1.15375625E5,1.9926119E5,2.299775E4,1.0376258E4,4.881558E4,3.664875E3,0E0,0E0,0E0,0E0,0E0,0E0,0E0,0E0],"parents":[2147483647,0,0,1,1,2,2,3,3,4,4,5,5,6,6],"right_children":[2,4,6,8,10,12,14,-1,-1,-1,-1,-1,-1,-1,-1],"split_conditions":[1.1228451E2,8.679227E1,1.5922115E2,2.2851784E0,2.2022853E0,1.390287E2,1.8991394E2,-9.411766E0,-1.5116561E1,-1.103563E0,-5.1564646E0,2.7789772E0,8.827689E0,1.4295227E1,2.2819464E1],"split_indices":[2,2,2,1,1,2,2,0,0,0,0,0,0,0,0],"split_type":[0,0,0,0,0,0,0,0,0,0,0,0,0,0,0],"sum_hessian":[1.4E2,6.8E1,7.2E1,4.2E1,2.6E1,5.6E1,1.6E1,2.5E1,1.7E1,1.2E1,1.4E1,3.3E1,2.3E1,1.1E1,5E0],"tree_param":{"num_deleted":"0","num_feature":"3","num_nodes":"15","size_leaf_vector":"1"}},{"base_weights":[2.746739E-1,-8.628872E1,6.926149E1,-1.2676068E2,-5.683349E1,3.742848E1,1.461258E2,-8.777341E0,-1.4032695E1,-3.9048848E0,-8.234753E0,5.4371076E0,-2.1253426E-1,1.1894084E1,2.0936573E1],"categories":[],"categories_nodes":[],"categories_segments":[],"categories_sizes":[],"default_left":[0,0,0,0,0,0,0,0,0,0,0,0,0,0,0],"id":6,"left_children":[1,3,5,7,9,11,13,-1,-1,-1,-1,-1,-1,-1,-1],"loss_changes":[8.455978E5,6.906444E4,1.883975E5,3.7466875E3,1.4555305E4,3.81671E4,1.9209781E4,0E0,0E0,0E0,0E0,0E0,0E0,0E0,0E0],"parents":[2147483647,0,0,1,1,2,2,3,3,4,4,5,5,6,6],"right_children":[2,4,6,8,10,12,14,-1,-1,-1,-1,-1,-1,-1,-1],"split_conditions":[1.0638826E2,6.365451E1,1.5556868E2,2.2029715E0,2.2651744E0,2.2186697E0,2.0119425E3,-8.777341E0,-1.4032695E1,-3.9048848E0,-8.234753E0,5.4371076E0,-2.1253426E-1,1.1894084E1,2.0936573E1],"split_indices":[2,2,2,1,1,1,0,0,0,0,0,0,0,0,0],"split_type":[0,0,0,0,0,0,0,0,0,0,0,0,0,0,0],"sum_hessian":[1.4E2,6.2E1,7.8E1,2.5E1,3.7E1,5.6E1,2.2E1,8E0,1.7E1,2.3E1,1.4E1,3.9E1,1.7E1,1.7E1,5E0],"tree_param":{"num_deleted":"0","num_feature":"3","num_nodes":"15","size_leaf_vector":"1"}},{"base_weights":[2.6442662E-1,-6.3405193E1,7.790526E1,-9.8429474E1,-2.0110132E1,5.25769E1,1.5217738E2,-1.2530534E1,-7.682738E0,7.615206E-2,-3.520071E0,6.103877E0,-1.8542303E0,1.1948256E1,1.9203295E1],"categories":[],"categories_nodes":[],"categories_segments":[],"categories_sizes":[],"default_left":[0,0,0,0,0,0,0,0,0,0,0,0,0,0,0],"id":7,"left_children":[1,3,5,7,9,11,13,-1,-1,-1,-1,-1,-1,-1,-1],"loss_changes":[6.9997994E5,1.16367E5,1.1357819E5,1.7106688E4,1.1304091E4,3.0281844E4,2.1705625E3,0E0,0E0,0E0,0E0,0E0,0E0,0E0,0E0],"parents":[2147483647,0,0,1,1,2,2,3,3,4,4,5,5,6,6],"right_children":[2,4,6,8,10,12,14,-1,-1,-1,-1,-1,-1,-1,-1],"split_conditions":[1.1866829E2,8.679227E1,1.6396649E2,5.4576546E1,2.1898208E0,2.2929204E0,1.8991394E2,-1.2530534E1,-7.682738E0,7.615206E-2,-3.520071E0,6.103877E0,-1.8542303E0,1.1948256E1,1.9203295E1],"split_indices":[2,2,2,2,1,1,2,0,0,0,0,0,0,0,0],"split_type":[0,0,0,0,0,0,0,0,0,0,0,0,0,0,0],"sum_hessian":[1.4E2,7.7E1,6.3E1,4.2E1,3.5E1,4.8E1,1.5E1,1.7E1,2.5E1,1.5E1,2E1,4.3E1,5E0,1E1,5E0],"tree_param":{"num_deleted":"0","num_feature":"3","num_nodes":"15","size_leaf_vector":"1"}},{"base_weights":[3.0456996E-1,-6.530654E1,6.2310074E1,-9.7621666E1,-3.507878E1,3.9680862E1,1.3583931E2,-1.237242E1,-7.9901156E0,-2.2105978E0,-6.104787E0,1.8855206E0,6.791458E0,1.155071E1,2.0442692E1],"categories":[],"categories_nodes":[],"categories_segments":[],"categories_sizes":[],"default_left":[0,0,0,0,0,0,0,0,0,0,0,0,0,0,0],"id":8,"left_children":[1,3,5,7,9,11,13,-1,-1,-1,-1,-1,-1,-1,-1],"loss_changes":[5.760643E5,6.443872E4,1.1678528E5,7.2223438E3,1.1301363E4,3.2355805E4,4.4740312E3,0E0,0E0,0E0,0E0,0E0,0E0,0E0,0E0],"parents":[2147483647,0,0,1,1,2,2,3,3,4,4,5,5,6,6],"right_children":[2,4,6,8,10,12,14,-1,-1,-1,-1,-1,-1,-1,-1],"split_conditions":[1.1228451E2,7.565314E1,1.5922115E2,4.640934E1,2.2651744E0,1.390287E2,2.0386852E2,-1.237242E1,-7.9901156E0,-2.2105978E0,-6.104787E0,1.8855206E0,6.791458E0,1.155071E1,2.0442692E1],"split_indices":[2,2,2,2,1,2,2,0,0,0,0,0,0,0,0],"split_type":[0,0,0,0,0,0,0,0,0,0,0,0,0,0,0],"sum_hessian":[1.4E2,6.8E1,7.2E1,3.2E1,3.6E1,5.6E1,1.6E1,1.1E1,2.1E1,2.5E1,1.1E1,3.3E1,2.3E1,1.4E1,2E0],"tree_param":{"num_deleted":"0","num_feature":"3","num_nodes":"15","size_leaf_vector":"1"}},{"base_weights":[3.4210664E-1,-5.204679E1,6.4225845E1,-8.089317E1,-1.6391405E1,4.3023563E1,1.2644677E2,-6.2294917E0,-1.0420333E1,1.4916633E-1,-2.9354837E0,5.039844E0,-1.8569297E0,1.0624269E1,1.8982498E1],"categories":[],"categories_nodes":[],"categories_segments":[],"categories_sizes":[],"default_left":[0,0,0,0,0,0,0,0,0,0,0,0,0,0,0],"id":9,"left_children":[1,3,5,7,9,11,13,-1,-1,-1,-1,-1,-1,-1,-1],"loss_changes":[4.7390584E5,7.893936E4,7.978056E4,1.3328625E4,8.339973E3,2.292196E4,4.0386719E3,0E0,0E0,0E0,0E0,0E0,0E0,0E0,0E0],"parents":[2147483647,0,0,1,1,2,2,3,3,4,4,5,5,6,6],"right_children":[2,4,6,8,10,12,14,-1,-1,-1,-1,-1,-1,-1,-1],"split_conditions":[1.1866829E2,8.679227E1,1.6396649E2,2.2851784E0,2.1898208E0,2.2929204E0,2.0386852E2,-6.2294917E0,-1.0420333E1,1.4916633E-1,-2.9354837E0,5.039844E0,-1.8569297E0,1.0624269E1,1.8982498E1],"split_indices":[2,2,2,1,1,1,2,0,0,0,0,0,0,0,0],"split_type":[0,0,0,0,0,0,0,0,0,0,0,0,0,0,0],"sum_hessian":[1.4E2,7.7E1,6.3E1,4.2E1,3.5E1,4.8E1,1.5E1,2.5E1,1.7E1,1.5E1,2E1,4.3E1,5E0,1.3E1,2E0],"tree_param":{"num_deleted":"0","num_feature":"3","num_nodes":"15","size_leaf_vector":"1"}},{"base_weights":[3.8362354E-1,-5.852856E1,4.733259E1,-8.722157E1,-3.897677E1,2.0041769E1,9.1662E1,-5.722245E0,-9.643596E0,-1.2673229E0,-4.657386E0,3.3576016E0,-1.37663E0,7.4831705E0,1.5094853E1],"categories":[],"categories_nodes":[],"categories_segments":[],"categories_sizes":[],"default_left":[0,0,0,0,0,0,0,0,0,0,0,0,0,0,0],"id":10,"left_children":[1,3,5,7,9,11,13,-1,-1,-1,-1,-1,-1,-1,-1],"loss_changes":[3.916479E5,3.248589E4,9.383916E4,2.4099062E3,7.269371E3,2.3160557E4,2.0653E4,0E0,0E0,0E0,0E0,0E0,0E0,0E0,0E0],"parents":[2147483647,0,0,1,1,2,2,3,3,4,4,5,5,6,6],"right_children":[2,4,6,8,10,12,14,-1,-1,-1,-1,-1,-1,-1,-1],"split_conditions":[1.0638826E2,6.316404E1,1.4695822E2,2.2029715E0,2.1620023E0,2.2186697E0,2.0119425E3,-5.722245E0,-9.643596E0,-1.2673229E0,-4.657386E0,3.3576016E0,-1.37663E0,7.4831705E0,1.5094853E1],"split_indices":[2,2,2,1,1,1,0,0,0,0,0,0,0,0,0],"split_type":[0,0,0,0,0,0,0,0,0,0,0,0,0,0,0],"sum_hessian":[1.4E2,6.2E1,7.8E1,2.4E1,3.8E1,4.9E1,2.9E1,7E0,1.7E1,9E0,2.9E1,3.5E1,1.4E1,2.4E1,5E0],"tree_param":{"num_deleted":"0","num_feature":"3","num_nodes":"15","size_leaf_vector":"1"}},{"base_weights":[3.634014E-1,-4.2819756E1,5.3021065E1,-6.670737E1,-1.3298925E1,3.506294E1,1.057894E2,-9.488471E0,-5.456716E0,-3.4357163E-1,-2.8809218E0,4.0498266E0,-2.1468935E0,8.753023E0,1.6548405E1],"categories":[],"categories_nodes":[],"categories_segments":[],"categories_sizes":[],"default_left":[0,0,0,0,0,0,0,0,0,0,0,0,0,0,0],"id":11,"left_children":[1,3,5,7,9,11,13,-1,-1,-1,-1,-1,-1,-1,-1],"loss_changes":[3.219868E5,5.4137484E4,5.746258E4,1.0469E4,5.3910957E3,1.5694105E4,5.5831094E3,0E0,0E0,0E0,0E0,0E0,0E0,0E0,0E0],"parents":[2147483647,0,0,1,1,2,2,3,3,4,4,5,5,6,6],"right_children":[2,4,6,8,10,12,14,-1,-1,-1,-1,-1,-1,-1,-1],"split_conditions":[1.1866829E2,8.679227E1,1.6396649E2,4.640934E1,2.2255943E0,2.2945411E0,2.0386852E2,-9.488471E0,-5.456716E0,-3.4357163E-1,-2.8809218E0,4.0498266E0,-2.1468935E0,8.753023E0,1.6548405E1],"split_indices":[2,2,2,2,1,1,2,0,0,0,0,0,0,0,0],"split_type":[0,0,0,0,0,0,0,0,0,0,0,0,0,0,0],"sum_hessian":[1.4E2,7.7E1,6.3E1,4.2E1,3.5E1,4.8E1,1.5E1,1.1E1,3.1E1,2.2E1,1.3E1,4.4E1,4E0,1.3E1,2E0],"tree_param":{"num_deleted":"0","num_feature":"3","num_nodes":"15","size_leaf_vector":"1"}},{"base_weights":[3.7796262E-1,-3.1690096E1,5.9489315E1,-6.0316452E1,-6.574429E0,4.3823524E1,1.0695043E2,-8.603953E0,-4.9247727E0,2.7289364E-1,-2.3433464E0,5.070577E0,1.9298048E0,8.485271E0,1.5366374E1],"categories":[],"categories_nodes":[],"categories_segments":[],"categories_sizes":[],"default_left":[0,0,0,0,0,0,0,0,0,0,0,0,0,0,0],"id":12,"left_children":[1,3,5,7,9,11,13,-1,-1,-1,-1,-1,-1,-1,-1],"loss_changes":[2.6841225E5,6.567085E4,3.324739E4,8.769219E3,7.866219E3,5.75225E3,1.7019062E3,0E0,0E0,0E0,0E0,0E0,0E0,0E0,0E0],"parents":[2147483647,0,0,1,1,2,2,3,3,4,4,5,5,6,6],"right_children":[2,4,6,8,10,12,14,-1,-1,-1,-1,-1,-1,-1,-1],"split_conditions":[1.303142E2,8.679227E1,1.7485691E3,4.640934E1,2.2255943E0,2.2186697E0,2.0386852E2,-8.603953E0,-4.9247727E0,2.7289364E-1,-2.3433464E0,5.070577E0,1.9298048E0,8.485271E0,1.5366374E1],"split_indices":[2,2,0,2,1,1,2,0,0,0,0,0,0,0,0],"split_type":[0,0,0,0,0,0,0,0,0,0,0,0,0,0,0],"sum_hessian":[1.4E2,9.1E1,4.9E1,4.2E1,4.9E1,3.8E1,1.1E1,1.1E1,3.1E1,3.2E1,1.7E1,2.9E1,9E0,9E0,2E0],"tree_param":{"num_deleted":"0","num_feature":"3","num_nodes":"15","size_leaf_vector":"1"}},{"base_weights":[4.2697155E-1,-4.3975185E1,3.581167E1,-6.552912E1,-2.9286583E1,8.392312E0,6.2506165E1,-4.1781807E0,-7.297889E0,-7.235946E-1,-3.5745208E0,3.2753117E0,-3.0584854E-1,5.1682563E0,1.1879175E1],"categories":[],"categories_nodes":[],"categories_segments":[],"categories_sizes":[],"default_left":[0,0,0,0,0,0,0,0,0,0,0,0,0,0,0],"id":13,"left_children":[1,3,5,7,9,11,13,-1,-1,-1,-1,-1,-1,-1,-1],"loss_changes":[2.2247711E5,1.832804E4,5.72435E4,1.9251094E3,5.310254E3,1.1188316E4,1.9301E4,0E0,0E0,0E0,0E0,0E0,0E0,0E0,0E0],"parents":[2147483647,0,0,1,1,2,2,3,3,4,4,5,5,6,6],"right_children":[2,4,6,8,10,12,14,-1,-1,-1,-1,-1,-1,-1,-1],"split_conditions":[1.0638826E2,6.316404E1,1.390287E2,2.2029715E0,2.1620023E0,2.1688352E0,1.8991394E2,-4.1781807E0,-7.297889E0,-7.235946E-1,-3.5745208E0,3.2753117E0,-3.0584854E-1,5.1682563E0,1.1879175E1],"split_indices":[2,2,2,1,1,1,2,0,0,0,0,0,0,0,0],"split_type":[0,0,0,0,0,0,0,0,0,0,0,0,0,0,0],"sum_hessian":[1.4E2,6.2E1,7.8E1,2.4E1,3.8E1,3.9E1,3.9E1,7E0,1.7E1,9E0,2.9E1,1.2E1,2.7E1,3.4E1,5E0],"tree_param":{"num_deleted":"0","num_feature":"3","num_nodes":"15","size_leaf_vector":"1"}},{"base_weights":[4.0795884E-1,-3.657355E1,3.535578E1,-5.480958E1,-1.9519188E1,2.1592606E1,8.019292E1,-7.1480165E0,-4.376552E0,-1.1050376E0,-3.6695461E0,3.1151934E0,-2.6392227E-1,6.5626597E0,1.3420265E1],"categories":[],"categories_nodes":[],"categories_segments":[],"categories_sizes":[],"default_left":[0,0,0,0,0,0,0,0,0,0,0,0,0,0,0],"id":14,"left_children":[1,3,5,7,9,11,13,-1,-1,-1,-1,-1,-1,-1,-1],"loss_changes":[1.8300742E5,2.0526336E4,4.3519375E4,3.5131016E3,5.019076E3,1.3228627E4,6.131164E3,0E0,0E0,0E0,0E0,0E0,0E0,0E0,0E0],"parents":[2147483647,0,0,1,1,2,2,3,3,4,4,5,5,6,6],"right_children":[2,4,6,8,10,12,14,-1,-1,-1,-1,-1,-1,-1,-1],"split_conditions":[1.1228451E2,7.565314E1,1.5922115E2,4.640934E1,2.2651744E0,2.2186697E0,2.0386852E2,-7.1480165E0,-4.376552E0,-1.1050376E0,-3.6695461E0,3.1151934E0,-2.6392227E-1,6.5626597E0,1.3420265E1],"split_indices":[2,2,2,2,1,1,2,0,0,0,0,0,0,0,0],"split_type":[0,0,0,0,0,0,0,0,0,0,0,0,0,0,0],"sum_hessian":[1.4E2,6.8E1,7.2E1,3.2E1,3.6E1,5.6E1,1.6E1,1.1E1,2.1E1,2.5E1,1.1E1,4E1,1.6E1,1.4E1,2E0],"tree_param":{"num_deleted":"0","num_feature":"3","num_nodes":"15","size_leaf_vector":"1"}},{"base_weights":[4.0386292E-1,-2.381437E1,4.504464E1,-4.3496124E1,-3.2825432E0,3.25881E1,8.29326E1,-3.2002027E0,-6.077293E0,9.65994E-2,-2.7792213E0,3.8231866E0,1.2745783E0,6.423244E0,1.2461673E1],"categories":[],"categories_nodes":[],"categories_segments":[],"categories_sizes":[],"default_left":[0,0,0,0,0,0,0,0,0,0,0,0,0,0,0],"id":15,"left_children":[1,3,5,7,9,11,13,-1,-1,-1,-1,-1,-1,-1,-1],"loss_changes":[1.530842E5,3.697302E4,2.1318062E4,7.719172E3,4.796008E3,3.945E3,2.7567734E3,0E0,0E0,0E0,0E0,0E0,0E0,0E0,0E0],"parents":[2147483647,0,0,1,1,2,2,3,3,4,4,5,5,6,6],"right_children":[2,4,6,8,10,12,14,-1,-1,-1,-1,-1,-1,-1,-1],"split_conditions":[1.303142E2,9.0757645E1,1.7485691E3,2.2928839E0,2.3131044E0,2.2186697E0,2.0386852E2,-3.2002027E0,-6.077293E0,9.65994E-2,-2.7792213E0,3.8231866E0,1.2745783E0,6.423244E0,1.2461673E1],"split_indices":[2,2,0,1,1,1,2,0,0,0,0,0,0,0,0],"split_type":[0,0,0,0,0,0,0,0,0,0,0,0,0,0,0],"sum_hessian":[1.4E2,9.1E1,4.9E1,4.6E1,4.5E1,3.8E1,1.1E1,2.9E1,1.7E1,3.9E1,6E0,2.9E1,9E0,9E0,2E0],"tree_param":{"num_deleted":"0","num_feature":"3","num_nodes":"15","size_leaf_vector":"1"}},{"base_weights":[4.3193406E-1,-2.439317E1,3.6421524E1,-4.0893833E1,-7.026114E0,2.5835289E1,7.5921394E1,-7.7600545E-1,-4.510709E0,-2.6940436E-3,-1.9779905E0,1.0518512E0,3.510915E0,5.833357E0,1.1571553E1],"categories":[],"categories_nodes":[],"categories_segments":[],"categories_sizes":[],"default_left":[0,0,0,0,0,0,0,0,0,0,0,0,0,0,0],"id":16,"left_children":[1,3,5,7,9,11,13,-1,-1,-1,-1,-1,-1,-1,-1],"loss_changes":[1.2651026E5,2.3774953E4,2.2579828E4,5.6843125E3,3.7269312E3,6.343176E3,2.8238438E3,0E0,0E0,0E0,0E0,0E0,0E0,0E0,0E0],"parents":[2147483647,0,0,1,1,2,2,3,3,4,4,5,5,6,6],"right_children":[2,4,6,8,10,12,14,-1,-1,-1,-1,-1,-1,-1,-1],"split_conditions":[1.2559498E2,8.679227E1,1.7485691E3,2.1237319E0,2.2255943E0,1.390287E2,2.0386852E2,-7.7600545E-1,-4.510709E0,-2.6940436E-3,-1.9779905E0,1.0518512E0,3.510915E0,5.833357E0,1.1571553E1],"split_indices":[2,2,0,1,1,2,2,0,0,0,0,0,0,0,0],"split_type":[0,0,0,0,0,0,0,0,0,0,0,0,0,0,0],"sum_hessian":[1.4E2,8.3E1,5.7E1,4.2E1,4.1E1,4.6E1,1.1E1,5E0,3.7E1,2.7E1,1.4E1,1.8E1,2.8E1,9E0,2E0],"tree_param":{"num_deleted":"0","num_feature":"3","num_nodes":"15","size_leaf_vector":"1"}},{"base_weights":[4.7211993E-1,-3.0419287E1,2.4393312E1,-2.221382E1,-4.9692852E1,9.001383E0,4.997034E1,-5.471311E0,-1.7949908E0,-5.08857E0,-1.6362768E0,2.9075153E0,-8.905831E-2,4.273582E0,1.0745015E1],"categories":[],"categories_nodes":[],"categories_segments":[],"categories_sizes":[],"default_left":[0,0,0,0,0,0,0,0,0,0,0,0,0,0,0],"id":17,"left_children":[1,3,5,7,9,11,13,-1,-1,-1,-1,-1,-1,-1,-1],"loss_changes":[1.0463788E5,8.876109E3,3.1044016E4,5.407912E3,2.8132812E1,1.011366E4,8.688391E3,0E0,0E0,0E0,0E0,0E0,0E0,0E0,0E0],"parents":[2147483647,0,0,1,1,2,2,3,3,4,4,5,5,6,6],"right_children":[2,4,6,8,10,12,14,-1,-1,-1,-1,-1,-1,-1,-1],"split_conditions":[1.0587469E2,2.3220763E0,1.4695822E2,3.3415378E2,1.1723744E3,2.1688352E0,2.0386852E2,-5.471311E0,-1.7949908E0,-5.08857E0,-1.6362768E0,2.9075153E0,-8.905831E-2,4.273582E0,1.0745015E1],"split_indices":[2,1,2,0,0,1,2,0,0,0,0,0,0,0,0],"split_type":[0,0,0,0,0,0,0,0,0,0,0,0,0,0,0],"sum_hessian":[1.4E2,6.1E1,7.9E1,4.4E1,1.7E1,5E1,2.9E1,4E0,4E1,1.6E1,1E0,1.6E1,3.4E1,2.7E1,2E0],"tree_param":{"num_deleted":"0","num_feature":"3","num_nodes":"15","size_leaf_vector":"1"}},{"base_weights":[4.4633463E-1,-2.010607E1,3.0241049E1,-3.247987E1,-4.355314E0,2.109948E1,6.443025E1,-2.3546665E0,-4.596445E0,5.05047E-1,-1.3120188E0,2.495651E0,-4.4955954E-1,4.905169E0,9.977515E0],"categories":[],"categories_nodes":[],"categories_segments":[],"categories_sizes":[],"default_left":[0,0,0,0,0,0,0,0,0,0,0,0,0,0,0],"id":18,"left_children":[1,3,5,7,9,11,13,-1,-1,-1,-1,-1,-1,-1,-1],"loss_changes":[8.670776E4,1.6211805E4,1.6960328E4,4.7578047E3,3.170875E3,4.713992E3,2.4688555E3,0E0,0E0,0E0,0E0,0E0,0E0,0E0,0E0],"parents":[2147483647,0,0,1,1,2,2,3,3,4,4,5,5,6,6],"right_children":[2,4,6,8,10,12,14,-1,-1,-1,-1,-1,-1,-1,-1],"split_conditions":[1.2559498E2,9.0757645E1,1.7485691E3,2.2928839E0,2.2022853E0,2.250247E0,2.0386852E2,-2.3546665E0,-4.596445E0,5.05047E-1,-1.3120188E0,2.495651E0,-4.4955954E-1,4.905169E0,9.977515E0],"split_indices":[2,2,0,1,1,1,2,0,0,0,0,0,0,0,0],"split_type":[0,0,0,0,0,0,0,0,0,0,0,0,0,0,0],"sum_hessian":[1.4E2,8.3E1,5.7E1,4.6E1,3.7E1,4.6E1,1.1E1,2.9E1,1.7E1,1.8E1,1.9E1,4E1,6E0,9E0,2E0],"tree_param":{"num_deleted":"0","num_feature":"3","num_nodes":"15","size_leaf_vector":"1"}},{"base_weights":[4.5366913E-1,-1.36849575E1,3.6613197E1,-2.7357155E1,2.2142963E0,2.946993E1,7.438823E0,-4.7089853E0,-2.1536798E0,2.1239262E0,-4.6318212E-1,3.6687229E0,8.043174E-1],"categories":[],"categories_nodes":[],"categories_segments":[],"categories_sizes":[],"default_left":[0,0,0,0,0,0,0,0,0,0,0,0,0],"id":19,"left_children":[1,3,5,7,9,11,-1,-1,-1,-1,-1,-1,-1],"loss_changes":[7.2388875E4,2.218254E4,8.964977E3,5.468797E3,6.3078364E3,5.136574E3,0E0,0E0,0E0,0E0,0E0,0E0,0E0],"parents":[2147483647,0,0,1,1,2,2,3,3,4,4,5,5],"right_children":[2,4,6,8,10,12,-1,-1,-1,-1,-1,-1,-1],"split_conditions":[1.390287E2,9.721345E1,2.0119425E3,4.640934E1,2.153653E0,2.2208178E0,7.438823E0,-4.7089853E0,-2.1536798E0,2.1239262E0,-4.6318212E-1,3.6687229E0,8.043174E-1],"split_indices":[2,2,0,2,1,1,0,0,0,0,0,0,0],"split_type":[0,0,0,0,0,0,0,0,0,0,0,0,0],"sum_hessian":[1.4E2,1.01E2,3.9E1,5.4E1,4.7E1,3.4E1,5E0,1.1E1,4.3E1,1.2E1,3.5E1,2.5E1,9E0],"tree_param":{"num_deleted":"0","num_feature":"3","num_nodes":"13","size_leaf_vector":"1"}},{"base_weights":[4.464302E-1,-1.2357532E1,3.3192314E1,-2.4969553E1,1.745188E0,2.847398E1,8.733489E0,-3.543537E-2,-2.8640983E0,2.1518006E0,-3.1535497E-1,2.1271942E0,3.8502991E0],"categories":[],"categories_nodes":[],"categories_segments":[],"categories_sizes":[],"default_left":[0,0,0,0,0,0,0,0,0,0,0,0,0],"id":20,"left_children":[1,3,5,7,9,11,-1,-1,-1,-1,-1,-1,-1],"loss_changes":[5.9366516E4,1.814604E4,8.154836E3,4.8481523E3,4.784817E3,2.063086E3,0E0,0E0,0E0,0E0,0E0,0E0,0E0],"parents":[2147483647,0,0,1,1,2,2,3,3,4,4,5,5],"right_children":[2,4,6,8,10,12,-1,-1,-1,-1,-1,-1,-1],"split_conditions":[1.390287E2,9.631504E1,2.0386852E2,2.1237319E0,2.1377723E0,1.5922115E2,8.733489E0,-3.543537E-2,-2.8640983E0,2.1518006E0,-3.1535497E-1,2.1271942E0,3.8502991E0],"split_indices":[2,2,2,1,1,2,0,0,0,0,0,0,0],"split_type":[0,0,0,0,0,0,0,0,0,0,0,0,0],"sum_hessian":[1.4E2,1.01E2,3.9E1,5.3E1,4.8E1,3.7E1,2E0,7E0,4.6E1,9E0,3.9E1,2.3E1,1.4E1],"tree_param":{"num_deleted":"0","num_feature":"3","num_nodes":"13","size_leaf_vector":"1"}},{"base_weights":[4.7933847E-1,-1.1130322E1,3.016979E1,-2.230753E1,1.8658124E0,2.5753622E1,8.10967E0,-1.603591E0,-3.6963508E0,1.639925E0,-4.536186E-1,1.6891015E0,3.233783E0],"categories":[],"categories_nodes":[],"categories_segments":[],"categories_sizes":[],"default_left":[0,0,0,0,0,0,0,0,0,0,0,0,0],"id":21,"left_children":[1,3,5,7,9,11,-1,-1,-1,-1,-1,-1,-1],"loss_changes":[4.8805656E4,1.4824906E4,7.2588945E3,4.55224E3,4.5093423E3,1.7589316E3,0E0,0E0,0E0,0E0,0E0,0E0,0E0],"parents":[2147483647,0,0,1,1,2,2,3,3,4,4,5,5],"right_children":[2,4,6,8,10,12,-1,-1,-1,-1,-1,-1,-1],"split_conditions":[1.390287E2,9.721345E1,2.0386852E2,2.3233368E0,2.1688352E0,1.5556868E2,8.10967E0,-1.603591E0,-3.6963508E0,1.639925E0,-4.536186E-1,1.6891015E0,3.233783E0],"split_indices":[2,2,2,1,1,2,0,0,0,0,0,0,0],"split_type":[0,0,0,0,0,0,0,0,0,0,0,0,0],"sum_hessian":[1.4E2,1.01E2,3.9E1,5.4E1,4.7E1,3.7E1,2E0,3.9E1,1.5E1,1.4E1,3.3E1,1.7E1,2E1],"tree_param":{"num_deleted":"0","num_feature":"3","num_nodes":"13","size_leaf_vector":"1"}},{"base_weights":[4.8208126E-1,-1.3506697E1,2.0760178E1,-5.4639764E0,-2.7198027E1,1.398468E1,4.620807E1,-2.150314E0,-1.4047489E-1,-1.9629242E0,-3.5369473E0,2.819817E0,8.4294957E-1,3.5809371E0,8.795221E0],"categories":[],"categories_nodes":[],"categories_segments":[],"categories_sizes":[],"default_left":[0,0,0,0,0,0,0,0,0,0,0,0,0,0,0],"id":22,"left_children":[1,3,5,7,9,11,13,-1,-1,-1,-1,-1,-1,-1,-1],"loss_changes":[4.016591E4,9.102264E3,9.436992E3,3.4739893E3,1.3384941E3,3.4977773E3,2.577836E3,0E0,0E0,0E0,0E0,0E0,0E0,0E0,0E0],"parents":[2147483647,0,0,1,1,2,2,3,3,4,4,5,5,6,6],"right_children":[2,4,6,8,10,12,14,-1,-1,-1,-1,-1,-1,-1,-1],"split_conditions":[1.2559498E2,2.27402E0,1.7485691E3,6.365451E1,2.3531032E0,2.1628604E0,2.570242E3,-2.150314E0,-1.4047489E-1,-1.9629242E0,-3.5369473E0,2.819817E0,8.4294957E-1,3.5809371E0,8.795221E0],"split_indices":[2,1,0,2,1,1,0,0,0,0,0,0,0,0,0],"split_type":[0,0,0,0,0,0,0,0,0,0,0,0,0,0,0],"sum_hessian":[1.4E2,8.3E1,5.7E1,5.3E1,3E1,4.6E1,1.1E1,1E1,4.3E1,1.7E1,1.3E1,1.2E1,3.4E1,1E1,1E0],"tree_param":{"num_deleted":"0","num_feature":"3","num_nodes":"15","size_leaf_vector":"1"}},{"base_weights":[4.805931E-1,-9.265347E0,2.5404015E1,-2.431224E1,-2.399478E0,2.2200027E1,8.306598E0,-3.904955E0,-1.8037529E0,3.3507088E-1,-1.2540524E0,2.7383466E0,9.944075E-1],"categories":[],"categories_nodes":[],"categories_segments":[],"categories_sizes":[],"default_left":[0,0,0,0,0,0,0,0,0,0,0,0,0],"id":23,"left_children":[1,3,5,7,9,11,-1,-1,-1,-1,-1,-1,-1],"loss_changes":[3.4392156E4,1.0464946E4,5.856674E3,2.3657168E3,4.1640073E3,2.2395762E3,0E0,0E0,0E0,0E0,0E0,0E0,0E0],"parents":[2147483647,0,0,1,1,2,2,3,3,4,4,5,5],"right_children":[2,4,6,8,10,12,-1,-1,-1,-1,-1,-1,-1],"split_conditions":[1.390287E2,7.410001E1,2.570242E3,3.8948025E1,2.2255943E0,2.2208178E0,8.306598E0,-3.904955E0,-1.8037529E0,3.3507088E-1,-1.2540524E0,2.7383466E0,9.944075E-1],"split_indices":[2,2,0,2,1,1,0,0,0,0,0,0,0],"split_type":[0,0,0,0,0,0,0,0,0,0,0,0,0],"sum_hessian":[1.4E2,1.01E2,3.9E1,3.1E1,7E1,3.8E1,1E0,8E0,2.3E1,4.5E1,2.5E1,2.6E1,1.2E1],"tree_param":{"num_deleted":"0","num_feature":"3","num_nodes":"13","size_leaf_vector":"1"}},{"base_weights":[4.632813E-1,-1.5687437E1,1.29688425E1,-3.5499592E0,-1.2209799E1,6.8806906E0,3.5459854E1,-7.978797E-1,-3.0534396E0,1.953335E0,1.1613335E-1,2.8754013E0,7.8451204E0],"categories":[],"categories_nodes":[],"categories_segments":[],"categories_sizes":[],"default_left":[0,0,0,0,0,0,0,0,0,0,0,0,0],"id":24,"left_children":[1,3,5,-1,7,9,11,-1,-1,-1,-1,-1,-1],"loss_changes":[2.8600123E4,3.9016934E3,1.0723251E4,0E0,3.968585E3,4.5946055E3,3.0172578E3,0E0,0E0,0E0,0E0,0E0,0E0],"parents":[2147483647,0,0,1,1,2,2,4,4,5,5,6,6],"right_children":[2,4,6,-1,8,10,12,-1,-1,-1,-1,-1,-1],"split_conditions":[1.0587469E2,3.8948025E1,1.5922115E2,-3.5499592E0,2.3531032E0,2.1688352E0,2.570242E3,-7.978797E-1,-3.0534396E0,1.953335E0,1.1613335E-1,2.8754013E0,7.8451204E0],"split_indices":[2,2,2,0,1,1,0,0,0,0,0,0,0],"split_type":[0,0,0,0,0,0,0,0,0,0,0,0,0],"sum_hessian":[1.4E2,6.1E1,7.9E1,8E0,5.3E1,6.3E1,1.6E1,4.4E1,9E0,1.9E1,4.4E1,1.5E1,1E0],"tree_param":{"num_deleted":"0","num_feature":"3","num_nodes":"13","size_leaf_vector":"1"}},{"base_weights":[4.4757268E-1,-7.6194606E0,2.1816978E1,-2.6790514E0,-2.227327E1,1.8195353E1,6.311064E0,-1.1021284E0,4.711795E-1,-1.496744E0,-2.7743995E0,2.317525E0,7.393969E-1],"categories":[],"categories_nodes":[],"categories_segments":[],"categories_sizes":[],"default_left":[0,0,0,0,0,0,0,0,0,0,0,0,0],"id":25,"left_children":[1,3,5,7,9,11,-1,-1,-1,-1,-1,-1,-1],"loss_changes":[2.4408018E4,7.389563E3,4.867629E3,4.8396543E3,6.9043164E2,1.8362637E3,0E0,0E0,0E0,0E0,0E0,0E0,0E0],"parents":[2147483647,0,0,1,1,2,2,3,3,4,4,5,5],"right_children":[2,4,6,8,10,12,-1,-1,-1,-1,-1,-1,-1],"split_conditions":[1.4056361E2,2.2985544E0,2.0386852E2,9.5233307E2,2.3531032E0,2.2208178E0,6.311064E0,-1.1021284E0,4.711795E-1,-1.496744E0,-2.7743995E0,2.317525E0,7.393969E-1],"split_indices":[2,1,2,0,1,1,0,0,0,0,0,0,0],"split_type":[0,0,0,0,0,0,0,0,0,0,0,0,0],"sum_hessian":[1.4E2,1.02E2,3.8E1,7.7E1,2.5E1,3.6E1,2E0,3.6E1,4.1E1,1.2E1,1.3E1,2.4E1,1.2E1],"tree_param":{"num_deleted":"0","num_feature":"3","num_nodes":"13","size_leaf_vector":"1"}},{"base_weights":[4.2818716E-1,-5.788983E0,2.3748224E1,1.2786903E0,-1.5631328E1,2.0154202E1,7.0586696E0,-8.2193846E-1,7.264655E-1,-1.1377107E0,-2.513043E0,2.6466234E0,7.6551694E-1],"categories":[],"categories_nodes":[],"categories_segments":[],"categories_sizes":[],"default_left":[0,0,0,0,0,0,0,0,0,0,0,0,0],"id":26,"left_children":[1,3,5,7,9,11,-1,-1,-1,-1,-1,-1,-1],"loss_changes":[2.0527412E4,7.7959453E3,3.8602441E3,3.788646E3,1.6552168E3,2.103249E3,0E0,0E0,0E0,0E0,0E0,0E0,0E0],"parents":[2147483647,0,0,1,1,2,2,3,3,4,4,5,5],"right_children":[2,4,6,8,10,12,-1,-1,-1,-1,-1,-1,-1],"split_conditions":[1.4695822E2,2.2255943E0,2.570242E3,9.5233307E2,2.3531032E0,2.2280858E0,7.0586696E0,-8.2193846E-1,7.264655E-1,-1.1377107E0,-2.513043E0,2.6466234E0,7.6551694E-1],"split_indices":[2,1,0,0,1,1,0,0,0,0,0,0,0],"split_type":[0,0,0,0,0,0,0,0,0,0,0,0,0],"sum_hessian":[1.4E2,1.11E2,2.9E1,6.5E1,4.6E1,2.8E1,1E0,2.5E1,4E1,3.3E1,1.3E1,1.8E1,1E1],"tree_param":{"num_deleted":"0","num_feature":"3","num_nodes":"13","size_leaf_vector":"1"}},{"base_weights":[4.2357746E-1,-5.23707E0,2.1655844E1,9.249345E0,-9.283464E0,1.8234262E1,6.6665215E0,3.2756883E-1,2.1907244E0,-2.0249486E0,-4.656871E-1,2.3932233E0,6.94637E-1],"categories":[],"categories_nodes":[],"categories_segments":[],"categories_sizes":[],"default_left":[0,0,0,0,0,0,0,0,0,0,0,0,0],"id":27,"left_children":[1,3,5,7,9,11,-1,-1,-1,-1,-1,-1,-1],"loss_changes":[1.701654E4,6.622164E3,3.5998428E3,1.8127803E3,4.3741416E3,1.7131924E3,0E0,0E0,0E0,0E0,0E0,0E0,0E0],"parents":[2147483647,0,0,1,1,2,2,3,3,4,4,5,5],"right_children":[2,4,6,8,10,12,-1,-1,-1,-1,-1,-1,-1],"split_conditions":[1.4695822E2,2.153653E0,2.570242E3,1.1777312E3,6.942496E1,2.2280858E0,6.6665215E0,3.2756883E-1,2.1907244E0,-2.0249486E0,-4.656871E-1,2.3932233E0,6.94637E-1],"split_indices":[2,1,0,0,2,1,0,0,0,0,0,0,0],"split_type":[0,0,0,0,0,0,0,0,0,0,0,0,0],"sum_hessian":[1.4E2,1.11E2,2.9E1,2.4E1,8.7E1,2.8E1,1E0,1.7E1,7E0,2.5E1,6.2E1,1.8E1,1E1],"tree_param":{"num_deleted":"0","num_feature":"3","num_nodes":"13","size_leaf_vector":"1"}},{"base_weights":[4.3708393E-1,-4.712984E0,1.9753458E1,1.2877185E0,-1.307358E1,1.3855381E1,4.2213726E1,-6.856093E-1,6.4171344E-1,-2.6889112E0,-1.0509745E0,2.1059325E0,-3.9798108E-1,2.7355986E0,6.29616E0],"categories":[],"categories_nodes":[],"categories_segments":[],"categories_sizes":[],"default_left":[0,0,0,0,0,0,0,0,0,0,0,0,0,0,0],"id":28,"left_children":[1,3,5,7,9,11,13,-1,-1,-1,-1,-1,-1,-1,-1],"loss_changes":[1.4084362E4,5.62477E3,3.4685527E3,2.7837725E3,1.4241328E3,3.2568618E3,3.9198242E2,0E0,0E0,0E0,0E0,0E0,0E0,0E0,0E0],"parents":[2147483647,0,0,1,1,2,2,3,3,4,4,5,5,6,6],"right_children":[2,4,6,8,10,12,14,-1,-1,-1,-1,-1,-1,-1,-1],"split_conditions":[1.4695822E2,2.2255943E0,2.0119425E3,9.5233307E2,3.8948025E1,2.2280858E0,2.570242E3,-6.856093E-1,6.4171344E-1,-2.6889112E0,-1.0509745E0,2.1059325E0,-3.9798108E-1,2.7355986E0,6.29616E0],"split_indices":[2,1,0,0,2,1,0,0,0,0,0,0,0,0,0],"split_type":[0,0,0,0,0,0,0,0,0,0,0,0,0,0,0],"sum_hessian":[1.4E2,1.11E2,2.9E1,6.5E1,4.6E1,2.4E1,5E0,2.5E1,4E1,6E0,4E1,1.7E1,7E0,4E0,1E0],"tree_param":{"num_deleted":"0","num_feature":"3","num_nodes":"15","size_leaf_vector":"1"}},{"base_weights":[4.3275213E-1,-4.2689443E0,1.8067097E1,8.320636E0,-7.78838E0,1.2524129E1,3.9241566E1,3.0956447E-1,1.9365295E0,-1.4176525E0,-2.2012039E-1,1.9048033E0,-3.6226377E-1,2.5076323E0,5.9463744E0],"categories":[],"categories_nodes":[],"categories_segments":[],"categories_sizes":[],"default_left":[0,0,0,0,0,0,0,0,0,0,0,0,0,0,0],"id":29,"left_children":[1,3,5,7,9,11,13,-1,-1,-1,-1,-1,-1,-1,-1],"loss_changes":[1.1738378E4,5.0053955E3,3.094082E3,1.3787136E3,3.1054907E3,2.6707188E3,4.516084E2,0E0,0E0,0E0,0E0,0E0,0E0,0E0,0E0],"parents":[2147483647,0,0,1,1,2,2,3,3,4,4,5,5,6,6],"right_children":[2,4,6,8,10,12,14,-1,-1,-1,-1,-1,-1,-1,-1],"split_conditions":[1.4695822E2,2.153653E0,2.0119425E3,1.1777312E3,9.2417175E1,2.2280858E0,2.570242E3,3.0956447E-1,1.9365295E0,-1.4176525E0,-2.2012039E-1,1.9048033E0,-3.6226377E-1,2.5076323E0,5.9463744E0],"split_indices":[2,1,0,0,2,1,0,0,0,0,0,0,0,0,0],"split_type":[0,0,0,0,0,0,0,0,0,0,0,0,0,0,0],"sum_hessian":[1.4E2,1.11E2,2.9E1,2.4E1,8.7E1,2.4E1,5E0,1.7E1,7E0,4E1,4.7E1,1.7E1,7E0,4E0,1E0],"tree_param":{"num_deleted":"0","num_feature":"3","num_nodes":"15","size_leaf_vector":"1"}},{"base_weights":[4.498749E-1,-4.754357E0,1.3757183E1,-2.4361937E1,-2.8721585E0,9.646888E0,3.6486935E1,-2.7827644E0,-1.3890713E0,-5.3477265E-2,-1.9061806E0,1.4136213E0,-2.9390404E-1,2.2986631E0,5.6160216E0],"categories":[],"categories_nodes":[],"categories_segments":[],"categories_sizes":[],"default_left":[0,0,0,0,0,0,0,0,0,0,0,0,0,0,0],"id":30,"left_children":[1,3,5,7,9,11,13,-1,-1,-1,-1,-1,-1,-1,-1],"loss_changes":[9.805133E3,3.6955405E3,3.42754E3,1.7734375E0,3.537454E3,2.0017571E3,4.9187695E2,0E0,0E0,0E0,0E0,0E0,0E0,0E0,0E0],"parents":[2147483647,0,0,1,1,2,2,3,3,4,4,5,5,6,6],"right_children":[2,4,6,8,10,12,14,-1,-1,-1,-1,-1,-1,-1,-1],"split_conditions":[1.390287E2,3.8948025E1,2.0119425E3,3.3173383E2,2.3531032E0,2.2208178E0,2.570242E3,-2.7827644E0,-1.3890713E0,-5.3477265E-2,-1.9061806E0,1.4136213E0,-2.9390404E-1,2.2986631E0,5.6160216E0],"split_indices":[2,2,0,0,1,1,0,0,0,0,0,0,0,0,0],"split_type":[0,0,0,0,0,0,0,0,0,0,0,0,0,0,0],"sum_hessian":[1.4E2,1.01E2,3.9E1,8E0,9.3E1,3.4E1,5E0,5E0,3E0,8.2E1,1.1E1,2.5E1,9E0,4E0,1E0],"tree_param":{"num_deleted":"0","num_feature":"3","num_nodes":"15","size_leaf_vector":"1"}},{"base_weights":[4.209501E-1,-2.0201714E0,2.497405E1,-8.766506E0,3.4304452E0,1.898267E1,5.3040204E0,-2.2307274E0,-6.2289166E-1,1.2192308E0,-1.3695023E-2,3.230028E0,8.8146365E-1],"categories":[],"categories_nodes":[],"categories_segments":[],"categories_sizes":[],"default_left":[0,0,0,0,0,0,0,0,0,0,0,0,0],"id":31,"left_children":[1,3,5,7,9,11,-1,-1,-1,-1,-1,-1,-1],"loss_changes":[8.484097E3,4.7613184E3,1.3325039E3,1.8691929E3,2.2480015E3,1.3618887E3,0E0,0E0,0E0,0E0,0E0,0E0,0E0],"parents":[2147483647,0,0,1,1,2,2,3,3,4,4,5,5],"right_children":[2,4,6,8,10,12,-1,-1,-1,-1,-1,-1,-1],"split_conditions":[1.7400208E3,1.01410194E2,2.570242E3,3.8948025E1,2.1688352E0,2.2207267E0,5.3040204E0,-2.2307274E0,-6.2289166E-1,1.2192308E0,-1.3695023E-2,3.230028E0,8.8146365E-1],"split_indices":[0,2,0,2,1,1,0,0,0,0,0,0,0],"split_type":[0,0,0,0,0,0,0,0,0,0,0,0,0],"sum_hessian":[1.4E2,1.28E2,1.2E1,5.7E1,7.1E1,1.1E1,1E0,8E0,4.9E1,2E1,5.1E1,4E0,7E0],"tree_param":{"num_deleted":"0","num_feature":"3","num_nodes":"13","size_leaf_vector":"1"}},{"base_weights":[4.229892E-1,-3.3084252E0,1.441741E1,7.0581503E0,-6.208702E0,1.1780224E1,5.0093527E0,2.7215225E-1,1.6205004E0,-2.0279338E0,-4.5923042E-1,2.395569E0,9.0356106E-1],"categories":[],"categories_nodes":[],"categories_segments":[],"categories_sizes":[],"default_left":[0,0,0,0,0,0,0,0,0,0,0,0,0],"id":32,"left_children":[1,3,5,7,9,11,-1,-1,-1,-1,-1,-1,-1],"loss_changes":[7.3928135E3,3.3962598E3,2.3192544E3,9.4466187E2,1.9174236E3,7.826465E2,0E0,0E0,0E0,0E0,0E0,0E0,0E0],"parents":[2147483647,0,0,1,1,2,2,3,3,4,4,5,5],"right_children":[2,4,6,8,10,12,-1,-1,-1,-1,-1,-1,-1],"split_conditions":[1.4695822E2,2.153653E0,2.570242E3,1.1777312E3,3.8948025E1,2.1729035E0,5.0093527E0,2.7215225E-1,1.6205004E0,-2.0279338E0,-4.5923042E-1,2.395569E0,9.0356106E-1],"split_indices":[2,1,0,0,2,1,0,0,0,0,0,0,0],"split_type":[0,0,0,0,0,0,0,0,0,0,0,0,0],"sum_hessian":[1.4E2,1.11E2,2.9E1,2.4E1,8.7E1,2.8E1,1E0,1.7E1,7E0,8E0,7.9E1,4E0,2.4E1],"tree_param":{"num_deleted":"0","num_feature":"3","num_nodes":"13","size_leaf_vector":"1"}},{"base_weights":[4.2480108E-1,-1.6989197E0,2.1783815E1,-8.586034E0,2.207796E0,1.6396088E1,4.7310557E0,-2.1757448E0,-6.58931E-1,1.1016041E0,-1.9878417E-2,2.8544772E0,7.2126824E-1],"categories":[],"categories_nodes":[],"categories_segments":[],"categories_sizes":[],"default_left":[0,0,0,0,0,0,0,0,0,0,0,0,0],"id":33,"left_children":[1,3,5,7,9,11,-1,-1,-1,-1,-1,-1,-1],"loss_changes":[6.4203936E3,3.4819333E3,1.1270908E3,1.1104617E3,1.759089E3,1.1446233E3,0E0,0E0,0E0,0E0,0E0,0E0,0E0],"parents":[2147483647,0,0,1,1,2,2,3,3,4,4,5,5],"right_children":[2,4,6,8,10,12,-1,-1,-1,-1,-1,-1,-1],"split_conditions":[1.7400208E3,9.0757645E1,2.570242E3,3.3173383E2,2.153653E0,2.2207267E0,4.7310557E0,-2.1757448E0,-6.58931E-1,1.1016041E0,-1.9878417E-2,2.8544772E0,7.2126824E-1],"split_indices":[0,2,0,0,1,1,0,0,0,0,0,0,0],"split_type":[0,0,0,0,0,0,0,0,0,0,0,0,0],"sum_hessian":[1.4E2,1.28E2,1.2E1,4.6E1,8.2E1,1.1E1,1E0,5E0,4.1E1,1.7E1,6.5E1,4E0,7E0],"tree_param":{"num_deleted":"0","num_feature":"3","num_nodes":"13","size_leaf_vector":"1"}},{"base_weights":[4.1955754E-1,-2.7916508E0,1.2462425E1,-5.7263637E-1,-1.3068985E1,1.0095567E1,4.4682183E0,9.733346E-1,-2.3516396E-1,-6.588397E-1,-1.5490203E0,1.3629903E0,3.1768668E-1],"categories":[],"categories_nodes":[],"categories_segments":[],"categories_sizes":[],"default_left":[0,0,0,0,0,0,0,0,0,0,0,0,0],"id":34,"left_children":[1,3,5,7,9,11,-1,-1,-1,-1,-1,-1,-1],"loss_changes":[5.4748066E3,2.5409458E3,1.9007065E3,1.7182649E3,2.2461963E2,6.662449E2,0E0,0E0,0E0,0E0,0E0,0E0,0E0],"parents":[2147483647,0,0,1,1,2,2,3,3,4,4,5,5],"right_children":[2,4,6,8,10,12,-1,-1,-1,-1,-1,-1,-1],"split_conditions":[1.4695822E2,2.3233368E0,2.570242E3,2.1319385E0,2.3531032E0,2.2280858E0,4.4682183E0,9.733346E-1,-2.3516396E-1,-6.588397E-1,-1.5490203E0,1.3629903E0,3.1768668E-1],"split_indices":[2,1,0,1,1,1,0,0,0,0,0,0,0],"split_type":[0,0,0,0,0,0,0,0,0,0,0,0,0],"sum_hessian":[1.4E2,1.11E2,2.9E1,9.2E1,1.9E1,2.8E1,1E0,1.3E1,7.9E1,6E0,1.3E1,1.8E1,1E1],"tree_param":{"num_deleted":"0","num_feature":"3","num_nodes":"13","size_leaf_vector":"1"}}]},"name":"gbtree"},"learner_model_param":{"base_score":"3.208435E2","boost_from_average":"1","num_class":"0","num_feature":"3","num_target":"1"},"objective":{"name":"reg:squarederror","reg_loss_param":{"scale_pos_weight":"1"}}},"version":[2,0,3]}